//Numpy array shape [128]
//Min -0.000000175041
//Max 0.000000188995
//Number of zeros 0

#ifndef B27_H_
#define B27_H_

#ifndef __SYNTHESIS__
model_default_t b27[128];
#else
model_default_t b27[128] = {0.9795, 0.4470, 0.0408, -0.8595, 1.3853, -1.2508, -0.0094, -0.0029, -1.1207, -1.0952, 0.1910, 0.2879, 1.0912, -1.0244, 0.2297, 0.9416, 0.8935, -1.2882, 0.7963, 1.9248, 0.9375, 0.9381, -0.0368, 0.7819, -0.9684, -1.1238, -0.4291, 0.0415, -0.2991, -1.2036, -0.3577, 0.4770, -0.7206, 0.0467, -0.0515, 0.5811, 0.3218, 0.4251, 0.7512, 0.1146, 0.5856, 1.5907, 0.4300, -0.4891, 0.4031, 0.5101, 0.6678, 0.4801, 0.7674, 0.0825, 0.9597, 0.6058, 1.0890, 0.8820, 0.2506, -0.0443, 0.8036, 0.9442, 0.7023, 0.4149, 0.1750, -0.0783, 0.9463, 2.0989, 0.8300, 0.5437, -0.0341, 1.2769, 0.3680, 0.6272, 0.3060, -0.9256, -0.9245, -1.3891, -0.6940, 0.8704, 0.2028, 0.0089, 0.0893, 0.1409, 0.4984, 0.3877, 0.6800, 0.5120, 0.7476, 0.1072, -0.4954, 0.2745, 0.1398, 0.7257, 0.3413, 1.0923, 0.9607, 1.4188, 0.5861, -0.2455, 0.1161, 0.7204, -0.7128, 2.4632, -0.1011, -1.2409, -0.4777, 0.5084, 0.3613, 0.5454, 0.6655, 0.2279, 1.0937, -0.1155, 0.5470, 0.6846, -0.3987, 0.7915, -0.3446, 1.7523, 0.5331, 0.0471, 0.4468, 1.3233, 0.9071, 1.1782, 0.6985, 0.3028, 0.5274, 0.9256, -0.8302, 1.0204};
#endif

#endif
