//Numpy array shape [256]
//Min -0.000000100653
//Max 0.000000085502
//Number of zeros 0

#ifndef B36_H_
#define B36_H_

#ifndef __SYNTHESIS__
model_default_t b36[256];
#else
model_default_t b36[256] = {-0.1750, -0.4443, 0.0288, 1.2249, 0.1131, 0.2878, 0.6503, -0.1063, 0.3638, 0.1783, 0.2115, 0.1135, 0.3609, 0.8545, 0.3578, -0.0912, 1.3530, 0.2126, 1.5470, 1.3458, -0.6860, 2.0961, 1.6473, -0.0257, 1.1532, 1.0267, -0.2581, -0.9178, -0.1536, -0.3579, -0.4967, -0.3354, -0.1772, 0.5143, 2.4298, 0.8293, -0.7552, 0.4034, -0.1766, -0.1332, 0.1862, 0.0056, 0.5750, 0.2749, -0.1942, -2.2583, 0.0952, 0.1601, 1.9451, 0.2029, -1.6022, 0.2901, 1.1275, 0.0109, -0.0023, -1.3130, 0.4131, -0.1068, 0.7752, 1.2379, 0.2165, -1.2418, -0.5861, 0.2816, 1.0096, 0.5957, 1.3745, -0.2027, 0.3522, 0.0727, 0.8871, 1.0393, -1.2579, 0.7008, -0.2243, 0.3401, 0.8653, 0.8985, -1.2940, 0.2385, 4.1265, 0.8253, 1.0023, 1.7026, -1.2721, -0.6326, 0.8901, 0.0436, 3.1495, 1.1132, -0.6982, 0.6089, 0.1969, -1.1764, 1.5077, -0.7906, 0.0850, 0.0036, 0.2040, 0.6332, 3.9497, 0.9186, -0.5513, 1.3179, -0.9955, 0.5313, -0.0004, -0.1677, 0.6611, 0.3528, 0.9875, 2.7165, -0.2392, -0.5713, -0.0480, 0.0671, -1.1512, -1.2308, 1.0518, 0.3789, -1.2519, 1.9391, 1.6623, -0.4990, 0.1652, 1.3910, -0.9037, 0.2640, 0.6973, -0.3240, 0.0152, 0.6580, 0.1043, 0.2375, -0.0765, 1.4182, 0.5993, 0.2186, -0.6623, 0.4255, 2.9729, 1.4876, 0.0908, 0.2162, 0.5476, 0.4646, -0.2701, 1.7207, 0.2977, 3.2229, 0.3660, -0.6121, 0.9731, 2.7238, 0.1033, 0.1140, 0.4499, 0.1141, 0.4195, 0.4179, 0.6656, 1.9191, -0.5636, 0.6909, -0.2439, -0.0607, 1.4410, 1.3488, -0.0928, 0.7588, -0.0985, -1.7429, 1.1914, -0.1133, -0.5530, -1.3455, 0.2908, 2.9959, 0.9174, -0.6348, 0.6712, -0.2734, -0.1567, 1.1823, -1.0003, 0.9042, 0.5688, -0.2601, -1.1235, 0.4435, 0.2263, 0.7756, 0.0907, 3.0446, 0.5717, 1.0433, -0.1657, -0.6743, 1.9063, 0.2649, 0.6571, -1.2106, 0.4930, 0.0580, -0.1700, -0.5366, -0.1211, 0.2149, 0.6935, 1.5064, 0.4154, 0.5520, -1.9967, -0.7824, 0.1054, 0.5380, 0.1422, 0.5696, -0.1755, 2.8751, 0.2279, 1.0024, 0.3683, 0.1741, 0.1557, 0.4732, 0.3034, -0.7184, 1.2445, -0.4935, -0.1660, 0.0257, 0.3302, -0.7129, 2.1337, 0.3731, 0.1810, 1.5985, 2.4742, 0.8923, -0.1921, -0.0907, 0.8900, 0.8100, -0.7081, 1.2692, 0.8801, -0.1470, 0.3640, 0.2246, 0.3583, 0.3468, 1.3465, 1.1469, -1.2997, 1.8006};
#endif

#endif
