//Numpy array shape [256]
//Min -0.000000113510
//Max 0.000000073725
//Number of zeros 0

#ifndef B40_H_
#define B40_H_

#ifndef __SYNTHESIS__
model_default_t b40[256];
#else
model_default_t b40[256] = {0.3534, 0.4802, -0.0228, 0.1510, -0.4428, 0.0713, 1.4330, 0.5715, -0.2653, 1.4349, -0.3263, -0.1654, -0.0466, -0.1250, -0.6504, 0.2777, 0.7936, 0.3809, 0.0072, 0.2474, -0.0389, -0.0976, -0.1620, -0.2476, 0.3720, 0.5180, 0.2529, 0.2598, 0.2299, 0.2739, -0.1268, 0.8119, 0.4011, -0.0521, 0.8479, 1.2376, -0.0270, -0.2559, -0.4638, 0.0768, 0.0476, 0.3411, 0.3934, 0.3561, -0.4312, 0.4324, -0.2029, 0.4426, 0.3495, 0.2219, 0.0557, 0.2897, 0.6006, 0.3498, 0.1194, 0.1714, 0.1486, -0.1382, -0.0373, 0.3128, 0.0032, 0.3491, -0.2219, -0.0298, -0.0845, 0.2071, 0.6981, 0.3621, 0.0708, 0.1817, 0.2401, -0.2108, 0.3915, 0.3934, -0.2992, -0.1520, -0.0874, 1.4942, 0.2361, 0.3562, -0.1370, 0.1637, 0.2740, 0.2378, -0.7061, 0.9954, 0.8229, 0.1717, 0.4245, 0.6461, -0.3256, 0.0487, -0.5077, -0.0272, 0.1763, 0.3598, 1.2077, -0.1089, 0.2514, 0.3741, 0.3765, 0.0338, 1.1221, 0.7255, 0.1101, 0.0767, 0.5280, 0.1569, -0.3936, 0.5962, 0.6374, -0.1982, 0.0538, 0.3803, -0.1886, 0.4682, -0.1966, 0.0586, -0.6362, 0.3701, -0.1006, -0.2677, 0.3798, -0.2058, -0.0717, 0.0889, -0.1676, -0.0238, 0.2965, -0.1686, -0.1731, -0.4400, 0.2000, 0.2088, -0.5054, -0.2267, -0.3776, 0.0837, 0.1283, -0.2555, -0.1778, 0.2444, 0.4451, 0.7809, 0.2323, 0.1463, 0.4789, 0.0135, -0.3143, 0.3797, 0.0329, 0.4263, 0.1600, -0.2610, 0.0322, 0.4079, 0.4802, 0.7903, 0.2033, -0.1434, 1.3705, -0.6877, 0.3604, 0.4658, 0.6265, 0.6363, 0.0981, 0.4480, -0.1846, 0.2038, -0.3380, 0.5409, -0.4265, 0.5714, 0.2436, -0.0480, -0.2649, 0.6224, 0.0012, -0.0642, 1.6945, 0.4313, 0.0604, 0.2486, 0.7025, 0.2918, -0.3481, -0.0491, 0.6803, -0.2059, 0.3793, 0.9087, -0.0577, -0.2593, -0.1352, 0.2942, 0.2040, 0.0737, -0.2908, 0.4981, -0.3644, 0.0764, 3.9315, 0.3306, 0.1682, 0.1023, -0.1642, 0.3804, 0.4808, 1.0110, 0.5385, 0.5429, 0.7572, 0.2610, 0.3290, -0.2300, 1.3734, -0.0094, 0.3281, -0.4187, 0.1776, 0.3538, 0.5446, 0.0588, -0.2421, 0.3718, -0.3634, 0.1990, 0.3971, 0.1942, 0.3786, 0.7696, -0.1100, 0.7358, 1.4259, -0.4631, 0.6215, -0.6981, 0.6581, -0.0769, -0.1752, -0.0981, 0.1660, 0.3760, 0.0300, 0.3816, -0.1986, -0.0655, -0.0064, 2.0254, -0.0466, 0.3800, -0.0469, 0.0043, 1.0120, -0.2943};
#endif

#endif
