//Numpy array shape [256]
//Min -1.858361959457
//Max 0.641270458698
//Number of zeros 0

#ifndef B50_H_
#define B50_H_

#ifndef __SYNTHESIS__
model_default_t b50[256];
#else
model_default_t b50[256] = {0.2517, -0.2676, 0.0290, -0.1215, -0.0945, 0.0517, -0.2667, 0.2423, 0.3047, -0.9576, -0.0901, -0.1941, -0.0855, -1.1194, -0.1416, -0.0049, -0.1955, -0.1277, -0.0425, -0.0611, -0.1675, -0.1458, -0.2795, -0.5469, -0.0870, -0.3456, 0.1320, 0.1425, -0.0232, 0.1851, -0.2035, 0.2604, -0.0014, -0.0324, -0.3183, -0.0359, -0.8644, 0.0074, -0.0365, -0.2700, -0.0497, -0.1357, -0.0150, -0.1532, -0.0300, -0.1867, -0.0713, -1.3774, 0.2714, -0.5657, 0.5661, -0.4776, -0.0158, -0.4912, 0.1686, -0.8664, -0.4353, -0.5193, -0.0006, 0.1756, -0.7103, -0.0579, -0.0233, -1.0099, 0.2302, 0.0195, -0.0168, 0.1505, -0.2915, 0.0204, 0.6405, -0.0884, -0.1668, 0.2148, -0.2232, -0.3218, -0.3857, -0.0353, -0.7504, -0.2350, 0.0631, -1.3727, -0.7059, -0.2438, -0.0896, -0.0874, -0.1417, 0.2623, -0.0185, -0.7372, -0.1302, 0.1561, -0.0866, -0.1546, 0.2078, -0.8228, -0.6738, 0.0645, -1.8584, -0.7191, -1.3670, -0.1225, 0.2067, 0.1943, 0.1194, -0.1403, -0.0436, 0.4911, -1.0846, -0.3617, -0.3202, -0.0313, 0.1311, 0.0444, -0.8512, 0.0080, -0.0796, -0.5734, -0.0305, -0.7640, -0.0275, -0.0539, 0.2968, -1.0732, -0.5966, -0.3215, -0.1361, -0.7116, -0.1656, -0.6357, -0.2784, 0.0768, 0.0270, -1.5028, -0.4880, 0.1885, 0.1575, -0.2191, 0.5422, 0.0002, -0.1399, -0.3225, 0.4454, -0.4336, -0.0169, -0.0358, 0.3189, -0.0380, 0.1221, -1.1490, -0.0736, -0.3288, -0.6087, -1.4040, -0.3127, 0.6413, -0.5344, -0.1387, -0.0129, -0.3405, -0.0982, -1.0511, -0.0064, 0.1420, -1.0805, -0.1625, -0.1110, -0.0836, -0.0867, -0.0437, -0.2447, -0.3398, 0.1230, 0.1961, 0.1870, -0.0245, -1.1828, -1.1835, 0.2497, -0.8842, 0.3027, -0.2675, 0.4820, -0.0406, 0.0778, -0.2411, -0.7977, 0.0652, -0.1718, 0.1259, -0.0968, -1.0307, 0.4185, -0.2962, -0.1391, -0.7679, -0.2928, -0.9144, -0.3683, -0.2435, -0.0514, -0.0378, 0.3274, 0.1068, 0.0178, -0.2767, -0.0248, -0.1348, -0.3465, -0.2879, -0.5522, 0.1462, 0.0273, -0.3107, 0.5955, -0.0302, -0.4985, 0.2606, -0.0668, 0.4222, -0.3118, -1.5088, -0.0646, -0.4891, -0.7693, 0.0049, -0.7857, 0.2162, 0.0158, -0.1412, 0.0913, -0.3683, -0.2586, -0.1648, 0.5080, -0.6706, 0.1543, -0.9122, 0.0811, -0.1312, -0.0957, -0.1808, 0.3207, -0.2024, 0.0035, -0.5982, -0.1338, -1.2271, 0.0782, -0.1774, 0.3633, -0.1539, -0.3202, 0.0977, -1.1023, -0.4118};
#endif

#endif
