//Numpy array shape [5, 5, 4, 16]
//Min -1.705437064171
//Max 1.151090979576
//Number of zeros 0

#ifndef W4_H_
#define W4_H_

#ifndef __SYNTHESIS__
model_weightdefault_t w4[1600];
#else
model_weightdefault_t w4[1600] = {2.0944, 1.0294, -0.1761, 0.1706, 0.5282, -0.2019, -0.1015, -0.8959, 0.1359, 0.2410, -0.1743, 1.9510, 0.6413, 0.7019, -0.0120, 2.7244, 0.5322, 3.4698, -1.7131, 0.1862, 0.4062, -0.1707, -0.4566, 2.1594, 1.2276, -1.8521, -1.1333, 0.8412, -1.0292, -1.0225, -1.1217, 1.3649, 1.4836, 4.1351, -0.4749, -1.0032, 4.2821, 3.8744, 0.8921, -0.6935, -0.4450, 0.8560, -0.4244, 1.5384, -1.3407, -0.6766, -0.2816, 3.8067, 0.3705, -1.5619, 0.9477, 0.5913, -1.3244, 2.8589, 1.9592, 1.2056, 2.1891, 4.1979, 0.7859, -0.8545, -0.9790, 3.2048, -1.2292, 0.3917, -0.1199, 1.2040, 3.5414, 0.6251, 0.4769, 5.8847, -2.8615, -0.1568, 1.1249, 6.9530, 1.7466, -1.4740, 2.4849, 11.1724, -0.3714, 0.1023, 0.4775, -20.1468, 1.8855, 2.7400, 0.5125, -20.4769, -2.9798, 1.2830, 3.3933, -17.9227, 3.8042, 0.7675, 1.9806, -20.8121, -3.3861, 3.2145, 0.7362, -19.4215, 1.5127, 1.7471, -0.8833, 0.8715, -0.5267, -1.1001, 1.6578, -3.4238, -2.2937, -1.3540, 0.8478, -3.9000, -3.1367, -0.2865, 1.0617, -1.5748, -7.4756, -2.1605, 0.7589, -4.5869, 0.7374, -0.8305, 0.2030, -1.2834, -3.7759, 1.0121, 0.8194, 1.3002, -2.4157, 1.2949, -0.2880, 0.6011, -4.0236, 0.6766, 2.0447, 2.6431, -4.5159, -2.5193, 1.5315, -0.1372, -4.3936, 1.2624, -1.5476, -0.1625, -0.5039, 0.0973, -0.6564, 1.6166, -0.9240, -2.0941, -2.7201, 2.6761, -2.8120, -0.8638, 1.1497, 8.0108, -0.0898, -2.5917, -2.4082, 2.9943, -1.1749, 0.5873, -4.2765, 0.0644, 2.2126, -1.0603, -1.9351, -4.2456, 0.2370, 0.1630, -3.5226, -0.9155, 1.2806, -0.4300, -2.1764, 0.5470, 4.8199, -0.4649, -3.8919, -1.5381, 2.5916, 1.0015, -4.5903, 0.6959, -3.0621, 1.3847, -1.9965, 0.1271, -2.4535, -0.4529, -2.3505, 0.9040, 2.2969, -0.3661, -2.5052, -1.4344, -0.1736, -1.6024, -4.3800, 0.6326, 1.0395, -0.0315, -1.8397, -0.7688, -1.8793, 1.6646, -1.0119, -0.1350, -0.7274, -0.1595, -1.2229, -1.8436, -2.1432, 0.0081, -2.5998, -1.9123, -1.8675, 1.2626, -3.4475, -1.0790, -0.1610, 1.9942, -2.8370, -2.9728, -3.3411, 0.1069, -2.7733, -2.7368, -2.7900, 0.1617, -4.4175, -3.2406, -2.1711, 1.1725, -3.3938, -2.8255, -3.6680, 1.2585, -4.1938, -4.1212, -2.1640, 0.3204, -3.3596, -5.2500, -2.3573, -1.0083, -1.5311, -5.6322, -1.8510, -1.0138, -1.9245, -4.0753, -2.2928, -0.4691, -2.5803, -5.7609, -2.4411, 1.7692, -2.5101, -5.3186, -0.1421, 2.4233, -0.0944, -6.0552, -0.4184, -0.4637, 1.2869, -3.4280, 1.3246, 0.5036, 0.3191, -5.1859, -0.3487, 0.5830, -0.1728, -6.0866, 1.1155, 0.0839, 0.2809, -5.0079, 0.5674, -0.5243, -1.3058, -3.8647, -2.6365, 0.3798, 0.9948, -0.2705, -0.2356, -0.0372, -0.8467, -1.6658, -1.1891, -0.0125, -1.4891, -2.4547, -2.1002, 0.9028, -1.8714, -2.6615, -0.6426, -0.2241, 0.4203, -0.8640, 0.7106, -0.0203, 0.8624, -0.4569, -0.0188, 0.0382, 0.0873, -1.1912, -0.7932, 0.0709, 0.4394, -1.0779, 0.1950, 0.2517, 0.6979, -1.2332, 0.1136, 0.3990, 1.2549, 1.4968, 2.0917, 0.2397, 1.6055, 2.1718, 0.0528, 0.4947, 1.3023, 1.3274, 0.5922, 0.4134, 1.4249, 1.5965, -0.7316, 0.2087, 0.9382, 1.6067, -0.1592, 0.3184, 0.5596, -0.1548, 1.7012, 0.7872, 1.7261, 1.1916, -0.0647, 0.3479, 1.3908, 1.5303, -0.3017, 0.3622, 0.6903, 1.2698, -0.0050, 0.1207, 1.7352, 2.3414, -0.1528, 0.4210, 0.9422, 1.1545, 2.2862, 0.6239, 1.5981, 2.0722, 0.0268, -0.2094, 1.5700, 2.2732, -0.1247, 0.7106, 1.0688, 1.1640, -0.0622, 0.3265, 0.9411, 1.1299, -0.8337, 0.4267, 0.6974, -1.2377, 3.1026, 0.2286, 1.5224, -0.1053, 0.0026, 0.4581, 0.8405, -0.3502, 0.6085, 0.2889, 0.7183, -0.9919, 0.7244, 0.5708, 0.6977, -0.8546, 1.0141, -0.6967, 0.5510, -0.1619, -6.2572, -0.6496, 1.2373, -0.5529, -7.4075, -1.4646, -0.7966, 0.3471, -1.4016, -0.8311, 1.1705, -2.5789, -2.4995, -1.7950, -1.5108, -0.8847, 1.5611, -1.6420, 4.0922, -1.0950, -5.9311, -1.3646, 2.7804, 2.7604, -7.7085, -2.9173, 2.6647, 1.8614, 1.3748, -1.8959, 4.4658, 1.6786, 1.7509, -4.3720, 1.6060, 4.7100, 2.0253, -4.4774, 1.4172, 0.6792, -7.2716, -1.9236, 1.6026, 0.6721, -9.0324, -2.2944, 0.2392, -2.1475, 0.6450, -3.0917, 0.1960, 2.8169, 4.5905, -3.8969, -0.3624, 3.5723, 0.8828, -3.1775, 0.5625, 0.7278, -5.1487, -3.1373, 0.2377, 0.4835, -4.7892, -3.5909, -2.2445, -2.9456, -0.4684, 0.0041, -1.0836, -3.5770, 3.4587, -5.8442, -3.3948, -4.0486, 0.6009, -4.2070, -1.1434, -1.8340, 1.4806, -3.0594, -0.1910, -0.7179, 1.3551, -2.1054, -1.6472, -2.0121, -1.6474, 1.2648, -3.2531, -2.1900, 3.9500, -2.6718, -3.1840, -2.3351, -3.7631, -4.3540, -0.0940, -2.7200, -2.3439, -3.3545, -0.0831, -3.9478, -1.2771, -2.5706, 0.4457, -3.5313, -0.8003, -2.4529, 1.2814, -7.0760, -0.9806, -2.4691, 0.5343, -5.2272, -0.7501, -0.9402, -1.4099, -2.6454, -2.0664, -4.4403, -0.2418, -4.5148, -0.5777, -1.9621, -1.7724, -3.2902, 0.0577, -1.6330, 0.1453, -6.5343, 3.0243, -2.8756, -1.1580, -6.5727, 1.9443, -1.9469, 1.7711, -7.7603, 0.0739, -2.6694, -0.4877, -9.0028, -0.4965, -1.6477, 1.8545, -8.9652, 1.1796, -0.5197, 2.5952, -7.7297, -0.6850, -2.4072, -1.1699, -4.4887, 1.7469, -3.2130, 0.3639, 2.0690, -2.5984, -3.7297, 2.4861, 1.5082, -0.7775, -2.0179, 0.6733, 1.5367, -0.4840, -2.7842, 1.4733, 0.9675, 3.7845, -2.7123, 0.2628, 7.1202, -3.0778, -0.2893, 3.8688, 0.3103, -2.4784, -1.5688, 1.8174, -0.1008, -2.3236, -2.4721, 2.1797, 0.9048, -0.9728, -0.9079, 1.6902, 1.8623, 3.8318, -2.5891, 3.0644, 0.3459, -1.7901, -1.0294, -1.3843, 0.4119, -3.6041, -0.6123, 2.7620, -0.7241, 2.6627, -3.2213, 2.4776, -0.5493, -2.9525, -3.4457, 4.0938, -0.0824, -1.1888, -3.4625, 4.6869, 1.0256, -3.5976, -2.5798, 4.7347, 0.5290, -3.2892, -2.6197, 10.1621, -1.4209, 0.5641, -3.8049, 6.7942, -0.1886, -5.3558, -3.8412, 7.6245, -0.8226, -1.6314, -4.1598, 7.7025, 0.6142, -3.5986, -2.8433, 2.4879, -0.2063, -0.1696, -0.8018, 4.7193, -2.1584, -0.0711, -4.7233, 4.0874, -0.5705, -2.4491, -4.9273, 5.7044, -1.4014, 1.7859, -1.1281, 7.1190, -1.9752, -2.8350, -3.4335, 0.6517, 0.3048, -0.6973, -2.5082, -1.5211, -2.4306, -0.0887, -3.3563, 3.1228, 0.2562, 3.1362, -4.5593, 0.4618, 0.7147, 6.0009, -4.3034, 2.4604, 0.5453, 1.0250, -0.6874, -3.4304, -0.1724, 0.2505, -3.1539, 0.8116, -0.0753, -2.9137, -6.3581, 0.7957, -1.5300, 7.1918, -2.4739, 1.8766, -1.5280, 5.6177, -3.0472, 2.1782, -1.2592, -1.0332, -2.3699, 2.9799, -0.9322, 0.0393, -0.7359, 3.3489, -0.5893, -1.2714, -0.8441, 3.2864, -0.7064, 0.1186, -0.3260, 3.4698, 0.3516, 1.0580, 0.3495, 2.3868, -0.4514, -0.0952, 0.5313, 3.0410, 0.2281, -0.1247, -0.0629, 2.7047, -0.0187, -1.8370, -0.1965, 3.1531, -0.1125, -0.1808, 0.5311, 2.8118, -0.8423, 0.8330, 0.0500, 2.5798, -1.0772, 1.4197, -0.4999, 2.2566, -0.0817, 0.1881, 0.4538, 3.2863, -0.4022, -0.5304, -0.4107, 3.0149, -0.2928, -0.1963, 0.3382, 2.7530, -0.3369, 0.2284, -0.6321, 1.7893, 0.0577, 0.3844, -0.2881, 2.4968, 1.1879, -0.1839, 0.0404, 2.2324, 0.7563, 0.2910, -0.1099, 1.8501, 0.0298, 0.5254, -0.1553, 2.0483, 0.1783, 2.6064, 0.2789, 1.1320, 1.0799, 3.5821, 0.0956, 1.5314, 2.1186, -0.7489, 0.3580, 1.0691, 0.9462, -0.0137, 0.1840, 1.2081, -0.1696, 0.8437, -0.2033, 1.5657, 1.8623, 3.3147, -0.2786, 0.5110, 1.2244, 3.2057, -0.1503, 0.1792, -1.1808, -1.7336, 11.9099, -1.1552, -2.5648, 1.5484, 18.0194, -3.1896, -0.5573, 3.3342, 12.3802, -0.4001, -2.6158, 3.0031, 13.4174, -1.0369, -3.9247, -0.1209, 9.7412, 2.0696, 2.1310, 3.1683, 12.2703, 0.1342, -1.4095, 4.2911, 14.4591, -0.1440, -0.5339, 0.1876, 14.1091, -1.2113, 1.2845, -3.2282, 11.4128, 3.0553, 0.2833, -2.0626, 8.8625, 0.1115, 4.7309, -2.3759, 12.9177, -0.8089, 2.2169, 0.7770, 14.0408, -2.0074, 1.9835, 0.7005, 16.6335, 4.1552, 6.4360, 1.1138, 15.6871, 0.2265, 2.4402, -0.7097, 6.7503, 4.2333, 0.2641, 0.5454, 9.2917, 1.8234, -0.8137, 3.0111, 13.2686, 1.3189, -1.6547, -4.6293, 13.8820, 2.1528, -1.9349, 1.1356, 10.8798, 5.0365, 0.4371, -1.1716, 6.1236, 2.7137, -0.1023, -0.5041, 9.1992, 6.0521, -1.0932, -1.0659, 13.9184, 0.9538, 0.8553, 0.9192, 11.9436, 1.5658, -0.2571, -0.7399, 9.1809, 0.1528, -0.7582, -0.0236, 8.4710, -6.0569, 0.2218, -0.2915, -0.0151, -2.7341, -0.4877, -1.3074, 0.4156, -3.1667, 1.1985, -1.5162, -0.2977, -4.3968, 0.1934, 4.2724, -0.4580, -7.6152, 0.6058, 1.1338, -0.8727, -3.7012, -0.0061, -1.8612, 0.2492, -2.4425, -1.2566, -0.1604, -0.9733, -3.7664, 1.6824, -1.5455, 1.6029, -4.4482, -0.1198, 2.4901, -0.8528, -4.2375, 1.0946, 2.1632, 0.1392, -2.5724, 0.3987, -0.2408, 0.5898, -0.6780, -0.2347, -2.3384, 1.8157, -0.7549, 0.0821, -3.0745, 0.7357, -3.0080, 0.5251, -0.1507, -0.6327, -3.2389, 0.3803, -1.0083, 1.3877, 0.5287, 0.6783, -1.5284, 0.2609, 0.3534, -1.9231, -4.1832, 0.0254, 1.7645, -0.8049, -6.1337, -0.6421, 0.4072, 1.2812, -3.5607, -0.2731, 2.9832, -2.4409, -4.6321, 0.9313, 0.7750, -0.9982, -2.4807, -0.8743, 0.4319, -2.6407, -2.8014, -0.9469, 0.2975, -1.5546, -3.4576, -0.9074, -0.7647, -0.1326, -3.0752, -1.1904, 1.5814, -3.0635, -6.0671, -0.5267, -0.0356, 1.7262, 0.3944, 2.6574, 1.6653, 7.8739, -0.7666, 1.0713, 0.8618, 6.7028, 0.5882, 0.8203, 2.7508, 0.1771, -0.0935, 2.0187, 1.5867, 0.0045, 0.0090, 1.7195, 0.7415, -11.3760, 2.7767, 1.5698, 1.0506, -9.7122, -2.7570, 1.0657, 1.8602, -8.9795, -0.6853, 1.7410, 2.0362, -9.7377, 1.8442, 0.1115, 0.9501, -11.0660, -1.2241, -0.0983, 1.0345, -9.2765, 0.5268, 0.6825, 2.0237, -8.9924, 0.3536, 4.1113, 1.5316, -8.5085, -0.3159, 0.8652, 0.5012, -10.0701, -1.8155, 0.6237, 1.4718, -10.1892, 1.5078, 1.1222, 0.4421, 2.6964, -2.7051, 4.6657, -0.1038, 5.8133, 2.9316, 0.6340, 1.7776, 3.5564, -1.4918, 1.7047, 0.2690, 6.9518, 0.2632, 1.9970, 2.6590, 5.8344, 0.2867, 0.8126, 1.6427, 3.1382, -1.4025, 2.1393, 0.5819, 1.5786, 1.6069, 1.7111, 0.8341, 3.0908, 1.1999, 0.0873, 0.6061, 1.6342, -0.3799, 1.7795, 0.5609, 1.4948, -0.4790, 0.9230, -0.3038, -0.8800, 1.1567, 0.2833, 0.7099, 1.5487, -1.5635, 0.3391, 3.1187, 2.0480, -4.7357, -0.2597, 0.3222, -0.2294, -2.2365, -1.6574, 0.3015, 1.5518, -1.2237, 0.4364, 0.2041, 1.1850, 0.9094, 1.1579, 0.6364, 1.2799, -1.6883, 0.7966, 1.1297, 0.3648, -5.4115, -0.3607, -0.4353, -2.3964, -3.8843, -0.0978, 1.4043, -1.5471, -0.5280, 0.2742, 0.2304, -2.6283, 0.6602, 1.0805, 1.1769, -3.4835, -2.4945, 0.1726, 0.4741, -3.5680, -2.4684, -0.6112, 1.6458, -3.9296, -3.3854, 1.0864, -0.0895, -2.6047, 1.1428, 0.1367, -1.0041, -6.7789, -5.0504, 0.6018, 1.3956, -5.5774, -3.1544, -0.4417, 2.5723, -5.6586, -3.8260, 0.6794, 0.0490, -7.6536, -3.1797, -0.5524, 1.4558, -5.2658, 1.6718, 0.6597, -0.5448, 2.4354, -3.7610, -0.3205, 1.1737, 4.2465, -0.8164, 0.4907, 0.8323, 4.2835, -4.0247, 0.4854, -0.9387, -0.5409, -2.8604, 1.4396, 0.4026, 2.7343, 1.6277, 0.3566, 0.1582, -2.4427, -0.3974, -0.5170, -1.3957, -3.2486, -2.3184, -0.5740, -0.7484, -2.5091, -3.4172, -0.6828, -1.1059, -1.6103, -3.9927, 0.0886, -1.8633, -2.4529, -1.5388, 0.0442, -0.5856, 3.0031, 1.0654, 0.2688, 1.0287, 0.6649, -2.4979, -0.2978, 0.2985, 0.5518, -2.3606, -1.0239, 0.4097, -0.0887, -2.3330, -0.0292, 0.1523, -0.9030, -2.6173, 0.0799, 0.5229, 2.3323, -0.8347, -1.2581, 0.2596, 0.0144, -1.0948, 0.5010, 0.5556, 0.0855, -2.4566, 0.4979, -0.1141, -0.7293, -2.1979, 0.7511, -1.3519, -1.1395, -1.6503, -0.2654, 0.1598, 2.4204, 0.4121, 0.1112, -0.6919, 2.5045, -1.7787, 0.1191, 0.0722, 2.0923, -0.9713, -0.1582, -0.3311, 1.0775, -1.0951, 0.1892, -0.6336, -0.3009, -0.8866, 1.7419, -0.0565, -1.7759, -0.4069, 0.6071, 1.4523, -0.0162, 0.2561, 1.0587, 0.6702, 0.2581, 1.4558, 0.5028, -0.6299, -0.3420, 2.2157, 0.8484, -0.8743, -0.5226, 0.8841, 1.7139, -0.2366, 3.9777, 0.0381, -0.4828, 0.3989, 4.0926, -0.1298, -0.9469, -0.3172, 3.0908, 0.1002, 0.1785, 0.8791, 4.0662, 1.3470, -0.8382, -0.5384, 1.9170, -1.5304, -0.0609, -0.0293, 5.8195, -0.2173, -0.5007, 0.1452, 4.9392, -0.2650, -0.2635, -0.4033, 2.0284, -0.4089, 2.0898, -0.4785, 3.0860, 0.7782, -0.0817, 0.3156, 1.1660, 0.3660, 0.4707, -0.3744, 0.8692, 0.0334, -1.4378, -1.0723, 1.8457, -0.0178, -0.4417, -0.0938, -0.2472, -0.6656, 0.4577, -0.7869, 0.5565, 0.7280, -0.8790, -0.1274, -1.9525, -0.5284, 0.6536, 0.7957, -2.3280, 0.2182, -0.6270, -0.3774, -0.5954, 1.5688, -0.2636, 0.3404, -3.2593, -1.9694, 0.4892, -0.7176, -3.4021, 1.0016, -0.0786, 0.2540, -3.2990, -0.6856, 0.6236, -0.5517, -0.2655, -0.2337, -0.5803, -1.4429, 1.4807, 1.4365, -0.6247, 0.4839, -0.9518, 0.0028, -0.2081, 0.3607, 0.3567, -1.2703, -0.7905, 0.0403, 1.6473, -0.0527, 0.3239, 0.7499, 1.2259, -0.0071, -0.0988, 1.0192, 1.3542, 0.9871, 0.2542, 0.4779, 1.1262, 0.3657, 0.5068, 0.5823, 1.1045, 0.7297, 0.4409, 0.5027, 1.3175, 0.7465, 0.4828, 0.6598, 0.7095, -0.0095, 0.3893, 0.7003, 0.8895, 0.7827, 0.4768, 1.0376, 0.6749, 0.3262, 0.3739, 0.7469, 1.2066, 1.3121, 0.5127, 0.6351, 1.4257, 1.0661, 0.3875, 0.3871, 0.9616, 0.0001, 0.2571, 0.8939, 0.7361, 0.7785, 0.4544, 1.0441, 0.7866, 0.3847, 0.1224, 0.9429, 0.9080, 0.7629, 0.7237, 0.5578, 1.2268, 0.7847, 0.2578, 0.8204, 0.7774, -0.0696, 0.0022, 0.8268, 0.5919, 0.8884, -0.0530, 0.3482, 1.2735, 0.6332, 0.5305, 0.6010, 1.0643, 1.3673, 0.3251, 1.0780, 1.2112, 0.7461, 0.4836, 0.5317, 1.1009, 0.0695, -0.0665, 0.9150, 0.9571, 0.8379, 0.4220, 0.5774, 0.9637, 0.9895, 0.3859, 0.7881, 1.1084, 0.7500, 0.3301, 1.0828, 1.5652, 0.6470, 0.1460, -0.9119, -0.1146, 0.4740, 0.1041, 0.5657, 0.4390, 3.1523, -1.5866, -0.4211, 0.7775, -3.1727, 0.0089, -0.9351, -0.2855, -1.9010, -0.5623, -0.8212, 0.0714, 0.0428, -0.1623, -1.7344, -1.3936, -0.8828, 0.0804, -0.7866, -1.2621, -1.0898, -0.8391, -0.2637, -0.6669, -3.8466, 0.4976, 0.1616, -0.7545, -4.4638, -0.2351, -0.4753, -0.2606, -2.3354, -1.1912, -0.5905, 0.7835, -1.1048, 0.4898, -0.3887, 0.9527, 0.0060, -0.0300, -0.1539, 2.3561, -2.1089, 0.5797, 0.8551, 2.0935, -2.5918, 0.6394, -0.6081, 1.7953, 0.0639, 0.3706, 0.4927, -2.5856, -2.4725, -0.4025, 0.1574, -0.2894, -2.5440, 0.3555, 1.5825, -1.1212, -2.1971, -0.0983, 0.4208, 0.3928, -4.1005, 0.1542, -0.8322, -0.4692, -0.6416, 0.6936, 1.2323, -1.6060, -1.6521, -0.8234, -0.5412, -2.3358, -2.2821, 0.6182, 1.2591, -2.1149, -2.3141, 0.7389, 0.8672, -1.1028, -3.1253, -0.1052, -0.1677, -3.5917, -1.4696, -0.0455};
#endif

#endif
