//Numpy array shape [256, 1]
//Min -1.770868062973
//Max 0.698451459408
//Number of zeros 0

#ifndef W52_H_
#define W52_H_

#ifndef __SYNTHESIS__
model_weightdefault_t w52[256];
#else
model_weightdefault_t w52[256] = {0.4522, 0.1630, 0.1655, 0.1159, -0.2860, -0.1921, 0.1091, -0.4800, 0.3513, -1.0764, 0.0437, 0.0841, -0.6590, -1.0947, 0.4264, 0.3059, 0.4034, -0.3617, -0.7447, -0.0531, -0.6977, -0.1819, 0.0870, 0.2030, 0.4344, 0.2003, -0.3143, 0.3119, -0.2006, -0.1652, -0.3901, -0.0725, 0.0287, 0.0669, -0.9440, 0.0411, -1.1157, -0.0017, 0.0783, 0.2407, 0.0981, 0.1782, -0.5368, -0.4227, -0.3694, -0.3365, -0.0997, -1.4772, 0.3117, -1.0199, -0.0042, -0.3254, 0.0703, 0.6034, -0.5183, -1.0286, -0.3919, -0.7935, -0.8175, 0.4154, 0.1138, -0.3644, -0.6910, -1.2355, 0.4033, 0.4230, -0.0647, 0.4682, -0.7330, 0.0806, -0.7170, 0.1617, -0.1526, -0.0231, -0.4169, 0.2818, 0.2538, -0.6209, -1.1416, 0.2758, 0.3000, -1.4156, -0.5819, 0.1438, 0.1092, -0.4939, -0.1360, 0.3606, 0.1243, -0.8101, -0.2255, -0.0356, -0.8796, -0.5551, 0.1342, -1.0829, 0.1720, 0.1103, -1.7709, -0.8770, -1.5183, 0.1072, -0.6672, 0.2932, 0.3085, -0.2286, -0.9164, -0.6880, -1.1224, -0.3013, 0.1963, -0.1001, -0.5249, 0.0928, -1.1044, -0.5864, -0.5144, -0.5771, -0.0719, 0.2621, -0.0672, 0.3936, 0.1131, -1.2999, -0.5108, -0.6553, -0.1677, -0.4831, -0.1768, -0.7024, -0.3041, -0.5668, -0.0523, -1.4619, -0.4791, 0.2214, 0.3459, -1.0217, 0.5733, -0.1104, -0.1242, 0.1905, 0.3456, 0.1452, 0.1902, 0.0479, -0.5202, 0.0263, 0.3695, 0.4132, -0.4652, -0.4413, 0.4211, -1.3478, 0.1496, 0.5194, -0.4339, -0.1752, 0.0106, -0.9123, -0.8243, 0.2759, 0.0437, 0.0449, -1.1091, 0.1104, -0.3924, -0.1513, 0.0855, 0.1805, 0.2764, -0.8313, 0.3570, -0.5766, 0.3319, -0.6506, -1.2405, -1.3545, -0.6086, -1.0753, -0.6017, 0.1436, 0.3373, -0.0718, 0.0742, -0.3312, -0.9829, -0.2548, -0.1670, 0.3094, 0.1040, -1.2835, -0.2068, 0.1254, 0.1694, -0.8615, 0.0938, -0.9803, 0.1164, 0.1588, 0.0325, 0.0640, 0.1968, 0.0841, -0.1541, 0.1992, 0.0326, 0.1594, -0.5553, 0.1504, -0.7809, 0.2823, 0.3763, 0.0944, 0.3933, 0.0107, -0.7713, 0.3245, -0.3608, 0.3995, 0.5789, -1.4785, -0.1656, -0.8066, 0.2443, 0.1439, -1.0094, -0.5843, 0.3338, 0.2349, 0.3380, 0.3769, 0.4008, -0.1814, -0.7070, 0.2046, 0.3339, 0.4342, -0.5008, 0.0910, 0.0673, -0.1358, 0.3452, 0.3120, 0.1661, 0.2201, -0.7129, 0.6985, 0.3561, -0.7068, 0.0426, 0.0641, 0.5573, 0.3853, -1.0801, -0.5023};
#endif

#endif
